svm_type one_class
kernel_type rbf
gamma 0.166667
nr_class 2
total_sv 57
rho 10.495
SV
1 1:-5.5254983 2:1.3546393 3:5.5123924 4:5.291571 5:1.2679013 6:3.9936689 
1 1:-9.2794469 2:-0.20127257 3:0.25059301 4:3.1907445 5:2.5166465 6:2.9573374 
1 1:-9.5471187 2:1.3369222 3:1.3484133 4:2.3341887 5:1.6922791 6:2.2811196 
1 1:-9.7260454 2:1.6737066 3:0.12497765 4:1.7553892 5:1.0898535 6:1.4557159 
1 1:-9.6079314 2:1.2229582 3:0.027772559 4:1.2889194 5:1.2229852 6:1.659493 
1 1:-9.7338665 2:1.4869589 3:-0.15370731 4:3.1208512 5:1.3363562 6:1.9476512 
1 1:-9.1413813 2:0.80876133 3:1.9784045 4:3.563581 5:1.8659284 6:4.1841822 
1 1:-9.2465665 2:0.3465208 3:2.6018561 4:2.8425367 5:1.3279668 6:1.6485083 
0.8590892351185092 1:-8.5201657 2:-0.25107195 3:4.6841723 4:1.9113082 5:1.3312578 6:1.4097496 
1 1:-9.0871127 2:0.26176605 3:3.3285761 4:0.41565792 5:0.44888115 6:0.40752259 
1 1:-8.9096226 2:0.36264175 3:3.8074152 4:0.46139495 5:0.48365708 6:0.42111279 
1 1:-9.0473688 2:-0.29831753 3:3.3780569 4:0.28750674 5:0.29530554 6:0.22591826 
1 1:-8.9166455 2:0.36647247 3:3.8934477 4:0.28236618 5:0.33029511 6:0.37608173 
1 1:-9.066682 2:-0.3964798 3:3.2950587 4:0.12831799 5:0.26557989 6:0.13137846 
0.7834450114229906 1:-9.0098597 2:-0.06384538 3:3.6083785 4:0.27898934 5:0.37029632 6:0.40735234 
1 1:-9.0666821 2:-0.12753115 3:3.3269813 4:0.2679388 5:0.30233749 6:0.40319466 
1 1:-9.2390647 2:-0.10821792 3:2.966253 4:0.35726701 5:0.37742542 6:0.37885154 
1 1:-9.0187982 2:0.30901163 3:3.4976072 4:0.41346177 5:0.41595717 6:0.33226122 
1 1:-9.1924576 2:-1.8274144 3:2.939918 4:1.4758555 5:1.9213395 6:1.2952576 
1 1:-9.3828764 2:-0.57780068 3:2.4315497 4:3.062073 5:1.2933225 6:2.1774195 
1 1:-9.7016245 2:-0.62983465 3:3.1327312 4:3.3340416 5:1.5869266 6:2.6406835 
1 1:-8.8039585 2:-0.49176903 3:2.3638745 4:3.2527595 5:1.4795726 6:2.3161337 
1 1:-9.497 2:-1.3994907 3:4.0487524 4:3.6129408 5:2.3318265 6:3.0249211 
0.1709129450996945 1:-8.7171287 2:-1.0084378 3:2.8581955 4:3.2415665 5:1.4878747 6:2.3596555 
1 1:-7.6271285 2:-1.9276516 3:5.3973252 4:3.421608 5:1.2738294 6:2.9209076 
1 1:-8.7867202 2:-1.6270995 3:5.377531 4:3.0509185 5:1.7608913 6:4.2735854 
0.8393748264336562 1:-7.499757 2:-1.0836157 3:5.1390718 4:2.8953899 5:2.117789 6:2.9333527 
1 1:-8.4488186 2:-0.36838784 3:3.367522 4:3.6352774 5:1.4728519 6:2.4609853 
0.3797123338180713 1:-9.1182374 2:-0.61642713 3:4.5630232 4:3.1194563 5:2.3186264 6:2.3201227 
0.1320293711681879 1:-8.2192944 2:-0.91458504 3:5.1298135 4:3.048628 5:2.1944437 6:3.2440893 
1 1:-8.4975007 2:-1.0513738 3:5.3020274 4:3.2534206 5:2.349528 6:3.1070476 
1 1:-8.9137726 2:-1.1104308 3:4.7954215 4:2.9976294 5:2.1371344 6:3.6078949 
1 1:-8.9238282 2:-1.9361111 3:4.2377345 4:3.0513398 5:2.6137538 6:2.6772962 
1 1:-9.025502 2:-1.5308525 3:4.575794 4:2.9713265 5:2.0906981 6:3.6293239 
1 1:-6.3305885 2:-2.0171947 3:6.6150151 4:1.7648134 5:1.761631 6:1.0517562 
1 1:-6.0643533 2:-0.33055945 3:7.0113357 4:1.6154574 5:1.4747448 6:2.1124791 
1 1:-8.4362092 2:-3.2888351 3:3.5405426 4:1.7592898 5:1.3575973 6:1.3327012 
1 1:-7.0560316 2:-2.0791248 3:6.6312818 4:2.3883393 5:1.2268941 6:2.6037106 
1 1:-7.8175474 2:-2.4754449 3:5.1360343 4:1.3630854 5:1.0417061 6:0.96101474 
1 1:-5.4689952 2:-2.9817388 3:6.6881161 4:1.1364794 5:0.93089947 6:1.2002764 
1 1:-5.1701988 2:-3.5876314 3:7.1004012 4:1.5180346 5:0.87087894 6:1.443268 
0.04461980619599838 1:-5.7302824 2:-3.8286478 3:6.6172491 4:1.4831944 5:1.0303373 6:1.5698138 
1 1:-5.19861 2:-3.8141229 3:6.9904269 4:1.8452937 5:1.1015352 6:1.6213567 
1 1:-4.8524084 2:-3.8185921 3:7.1854723 4:1.685591 5:1.0057135 6:1.6208113 
1 1:-5.0426676 2:-3.6442942 3:7.3283096 4:1.6493479 5:1.0063541 6:1.3980694 
1 1:-4.9789819 2:-3.952827 3:7.1457293 4:1.7022854 5:1.1664753 6:1.4942345 
1 1:-7.7077333 2:-2.5520594 3:5.1711495 4:1.3627038 5:1.4208148 6:1.0681103 
1 1:-7.8354241 2:-3.0760703 3:5.0487286 4:2.2939076 5:2.0477994 6:2.0071141 
1 1:-6.9095065 2:-3.449087 3:5.7770431 4:2.6297055 5:1.9105036 6:2.1835787 
0.04656701190815532 1:-5.3547119 2:-3.5341609 3:6.9450938 4:1.7167901 5:0.92639451 6:1.6263541 
0.495056137261443 1:-6.4651426 2:-3.7320816 3:6.5813325 4:1.9951236 5:1.7086432 6:1.4208158 
1 1:-5.7138421 2:-3.7884251 3:6.6670465 4:1.5236978 5:1.0362977 6:1.1968166 
1 1:-6.3048908 2:-3.8620069 3:6.4593786 4:2.01442 5:1.6269647 6:1.5866469 
0.9695803842256855 1:-8.4066806 2:-2.4222937 3:4.1165852 4:1.5838772 5:1.4705933 6:1.4030286 
0.07961293734761239 1:-6.9995285 2:-3.5210726 3:5.7237339 4:2.0810081 5:1.5772051 6:1.3906969 
1 1:-6.6233196 2:-1.559583 3:7.0933462 4:2.9212777 5:1.0722087 6:2.5220194 
1 1:-6.1704963 2:-1.2943054 3:7.1728629 4:1.4609926 5:0.80024107 6:1.4375376 
