svm_type one_class
kernel_type rbf
gamma 0.166667
nr_class 2
total_sv 55
rho 20.1913
SV
1 1:-7.3909006 2:4.1523438 3:3.9652745 4:4.7370836 5:1.5155846 6:2.8803722 
1 1:-10.303686 2:-1.039722 3:-0.22713015 4:1.7852169 5:1.5887875 6:0.94102298 
1 1:-10.038409 2:-1.716483 3:0.40908916 4:2.9697165 5:1.6200789 6:1.2432503 
1 1:-10.805192 2:-2.3057759 3:0.52640497 4:2.9031242 5:1.8711108 6:1.1121598 
1 1:-10.110873 2:-1.7723477 3:0.6355788 4:2.4301843 5:1.720135 6:1.0374159 
1 1:-10.452925 2:-1.9491994 3:0.87388287 4:2.5174718 5:1.9139143 6:1.0699885 
1 1:-10.588597 2:-1.9744183 3:0.98736731 4:2.295843 5:1.5526257 6:0.9718348 
1 1:-10.324117 2:-1.9565416 3:0.82775417 4:2.5522265 5:1.5992142 6:1.163639 
1 1:-9.8447978 2:-1.9951681 3:0.72624009 4:2.4086247 5:1.4876829 6:0.92639252 
1 1:-10.040803 2:-2.2486342 3:1.0783476 4:2.2054989 5:1.6302244 6:0.93522283 
0.7731945360220412 1:-10.204247 2:-2.3986709 3:1.0936703 4:2.1176624 5:1.6136701 6:0.80386156 
1 1:-9.7791966 2:-2.0025103 3:0.88042709 4:2.392965 5:1.7555558 6:0.84825751 
1 1:-10.328746 2:-2.1126436 3:1.0973409 4:2.4218509 5:1.6600303 6:0.79714455 
1 1:-10.602962 2:-2.2719378 3:1.4789756 4:2.5848237 5:1.6539992 6:1.0291972 
1 1:-10.127314 2:-2.3654713 3:1.3782608 4:2.2850935 5:1.4554919 6:1.0687105 
0.1069096022520657 1:-10.131623 2:-2.2063367 3:1.0531284 4:2.3058947 5:1.5767499 6:1.2279171 
1 1:-10.743581 2:-2.1118455 3:1.1993349 4:2.3203671 5:1.9074549 6:0.97221045 
0.6820676986317787 1:-11.061531 2:-2.4553337 3:0.85680428 4:2.8443325 5:1.8611329 6:0.92923153 
1 1:-11.402785 2:-3.2216378 3:1.1176125 4:3.4263051 5:2.0486229 6:1.2576281 
1 1:-10.475111 2:-3.3507651 3:1.2952619 4:4.102555 5:2.1370333 6:1.6921535 
1 1:-10.887552 2:-3.3001676 3:1.4650909 4:3.4023991 5:2.8750329 6:1.4619317 
1 1:-12.40005 2:-2.9518911 3:2.2783202 4:3.803269 5:2.5559726 6:1.6843098 
1 1:-10.465375 2:-2.4079284 3:2.6952307 4:4.6919876 5:2.6116073 6:1.7220057 
1 1:-9.3911764 2:-4.5916 3:1.4663681 4:2.5251433 5:1.9946793 6:2.1542769 
1 1:-7.7074141 2:-6.2870141 3:0.67548374 4:1.8893066 5:1.7633859 6:1.1136823 
1 1:-8.8041181 2:-5.1860005 3:0.16440096 4:2.3983637 5:1.1413187 6:1.5616039 
1 1:-9.6317138 2:-4.5970269 3:0.58258859 4:1.866747 5:1.7032879 6:1.2347156 
1 1:-9.4910943 2:-4.3804314 3:0.42329455 4:2.1291235 5:1.6589775 6:1.3493339 
1 1:-9.3453672 2:-4.3884121 3:0.85233512 4:2.1430019 5:1.5366388 6:0.76793768 
1 1:-9.3284483 2:-4.6803451 3:0.85967687 4:2.332049 5:1.7196757 6:0.77623665 
1 1:-10.371043 2:-4.3577663 3:0.052672338 4:2.2696263 5:1.9501202 6:1.1342206 
1 1:-11.328405 2:-3.2684046 3:1.0975013 4:3.6056445 5:3.4190117 6:1.3201707 
1 1:-5.6401008 2:2.3218968 3:4.9836088 4:5.1329659 5:3.0283494 6:3.4249748 
1 1:-11.048283 2:-4.5879289 3:0.31922664 4:3.0381327 5:2.2821371 6:0.89084244 
0.0854639079046895 1:-9.5179094 2:-4.9539225 3:0.45617483 4:3.1630773 5:1.7704872 6:0.77665215 
1 1:-9.6556558 2:-5.3973287 3:0.62009668 4:2.7243259 5:1.93363 6:0.70592166 
1 1:-9.2993986 2:-5.1387549 3:0.68426238 4:2.5638008 5:1.905569 6:0.80319311 
1 1:-9.4638005 2:-5.6587755 3:0.71490777 4:2.9367221 5:2.0855998 6:0.82814096 
1 1:-6.8702416 2:0.5854621 3:2.5295529 4:7.3494602 5:3.4554164 6:2.2096744 
1 1:-11.192095 2:-5.9925273 3:1.3956586 4:3.7838568 5:2.5121535 6:1.1967789 
1 1:-9.6965169 2:-5.9377798 3:0.90101694 4:3.0732969 5:2.0492811 6:0.89109909 
1 1:-9.7892523 2:-5.9650737 3:1.1560758 4:3.4335555 5:2.4495389 6:1.0896357 
1 1:-10.435846 2:-5.7808798 3:1.0280677 4:3.1522859 5:2.3218171 6:1.3981682 
1 1:-10.983799 2:-5.3725886 3:1.1372441 4:3.4618487 5:2.0924092 6:1.1544213 
1 1:-10.166898 2:-5.7628435 3:0.96342607 4:3.3584176 5:2.2695171 6:1.0425043 
0.1027735668223379 1:-9.6658711 2:-5.54545 3:1.0456269 4:3.2281986 5:2.0034483 6:0.91160801 
1 1:-10.126356 2:-6.3885282 3:1.0497773 4:3.9429875 5:3.019243 6:1.3765688 
1 1:-10.870953 2:-5.4321244 3:1.2673293 4:3.6293737 5:2.7237804 6:1.2390342 
1 1:-10.801202 2:-5.1157705 3:1.3094678 4:3.425631 5:2.8890653 6:1.0404039 
1 1:-11.063925 2:-6.1082469 3:1.4580682 4:3.5227417 5:2.7042572 6:1.4806002 
1 1:-9.6537404 2:-6.0247691 3:0.95305047 4:3.1898238 5:2.2086974 6:0.97584907 
1 1:-10.301292 2:-5.9847062 3:1.0210461 4:2.7187792 5:2.3283227 6:1.4222068 
1 1:-9.0007618 2:-1.578577 3:1.8944506 4:5.9587324 5:4.005179 6:1.354809 
1 1:-10.847809 2:-2.2374613 3:1.2486554 4:4.98097 5:3.1537734 6:1.6626549 
0.04959068836709107 1:-9.4294836 2:-4.9577532 3:0.780509 4:2.2678829 5:1.7486023 6:1.0028413 
