svm_type one_class
kernel_type rbf
gamma 0.166667
nr_class 2
total_sv 112
rho 10.2766
SV
1 1:-7.3909006 2:4.1523438 3:3.9652745 4:4.7370836 5:1.5155846 6:2.8803722 
1 1:-10.303686 2:-1.039722 3:-0.22713015 4:1.7852169 5:1.5887875 6:0.94102298 
1 1:-10.038409 2:-1.716483 3:0.40908916 4:2.9697165 5:1.6200789 6:1.2432503 
1 1:-10.110873 2:-1.7723477 3:0.6355788 4:2.4301843 5:1.720135 6:1.0374159 
1 1:-10.588597 2:-1.9744183 3:0.98736731 4:2.295843 5:1.5526257 6:0.9718348 
1 1:-9.8447978 2:-1.9951681 3:0.72624009 4:2.4086247 5:1.4876829 6:0.92639252 
1 1:-9.7791966 2:-2.0025103 3:0.88042709 4:2.392965 5:1.7555558 6:0.84825751 
0.7491930960912784 1:-10.127314 2:-2.3654713 3:1.3782608 4:2.2850935 5:1.4554919 6:1.0687105 
1 1:-10.743581 2:-2.1118455 3:1.1993349 4:2.3203671 5:1.9074549 6:0.97221045 
0.730429615285657 1:-11.402785 2:-3.2216378 3:1.1176125 4:3.4263051 5:2.0486229 6:1.2576281 
1 1:-10.475111 2:-3.3507651 3:1.2952619 4:4.102555 5:2.1370333 6:1.6921535 
1 1:-12.40005 2:-2.9518911 3:2.2783202 4:3.803269 5:2.5559726 6:1.6843098 
1 1:-10.465375 2:-2.4079284 3:2.6952307 4:4.6919876 5:2.6116073 6:1.7220057 
1 1:-9.3911764 2:-4.5916 3:1.4663681 4:2.5251433 5:1.9946793 6:2.1542769 
1 1:-7.7074141 2:-6.2870141 3:0.67548374 4:1.8893066 5:1.7633859 6:1.1136823 
1 1:-8.8041181 2:-5.1860005 3:0.16440096 4:2.3983637 5:1.1413187 6:1.5616039 
1 1:-9.6317138 2:-4.5970269 3:0.58258859 4:1.866747 5:1.7032879 6:1.2347156 
1 1:-9.3453672 2:-4.3884121 3:0.85233512 4:2.1430019 5:1.5366388 6:0.76793768 
0.3512609490138013 1:-10.371043 2:-4.3577663 3:0.052672338 4:2.2696263 5:1.9501202 6:1.1342206 
1 1:-11.328405 2:-3.2684046 3:1.0975013 4:3.6056445 5:3.4190117 6:1.3201707 
1 1:-5.6401008 2:2.3218968 3:4.9836088 4:5.1329659 5:3.0283494 6:3.4249748 
0.2421415874580042 1:-10.026438 2:-3.9836324 3:0.37971982 4:2.0486253 5:1.7687682 6:0.63931082 
0.7903117884347487 1:-11.048283 2:-4.5879289 3:0.31922664 4:3.0381327 5:2.2821371 6:0.89084244 
1 1:-6.8702416 2:0.5854621 3:2.5295529 4:7.3494602 5:3.4554164 6:2.2096744 
1 1:-11.192095 2:-5.9925273 3:1.3956586 4:3.7838568 5:2.5121535 6:1.1967789 
0.9632126788312401 1:-9.6965169 2:-5.9377798 3:0.90101694 4:3.0732969 5:2.0492811 6:0.89109909 
1 1:-9.7892523 2:-5.9650737 3:1.1560758 4:3.4335555 5:2.4495389 6:1.0896357 
1 1:-10.126356 2:-6.3885282 3:1.0497773 4:3.9429875 5:3.019243 6:1.3765688 
0.8732309307089386 1:-10.870953 2:-5.4321244 3:1.2673293 4:3.6293737 5:2.7237804 6:1.2390342 
1 1:-11.063925 2:-6.1082469 3:1.4580682 4:3.5227417 5:2.7042572 6:1.4806002 
1 1:-9.6537404 2:-6.0247691 3:0.95305047 4:3.1898238 5:2.2086974 6:0.97584907 
0.8448785649785585 1:-10.301292 2:-5.9847062 3:1.0210461 4:2.7187792 5:2.3283227 6:1.4222068 
1 1:-9.0007618 2:-1.578577 3:1.8944506 4:5.9587324 5:4.005179 6:1.354809 
1 1:-10.847809 2:-2.2374613 3:1.2486554 4:4.98097 5:3.1537734 6:1.6626549 
1 1:-5.4672394 2:-0.72815655 3:6.577984 4:3.8654947 5:3.2061312 6:2.7789974 
1 1:-5.5887052 2:-7.0659277 3:3.7531416 4:2.2472472 5:2.3081744 6:2.5533053 
1 1:-1.8882271 2:-9.2403415 3:1.9913361 4:1.509057 5:1.8077717 6:1.2629261 
1 1:-0.07501832 2:-9.6610828 3:-0.40573691 4:0.76517461 5:1.1846472 6:0.81737107 
1 1:-0.2670333 2:-9.6430464 3:-0.78354205 4:0.61080484 5:0.49609433 6:0.6648985 
1 1:0.76917721 2:-9.6775229 3:-0.79168191 4:2.0293315 5:2.6119615 6:2.031959 
1 1:0.79152307 2:-9.5458418 3:-0.40398248 4:3.2558334 5:3.3876666 6:5.5400511 
1 1:0.68202826 2:-9.9404063 3:-0.34620273 4:2.3446904 5:3.5147481 6:3.6418145 
1 1:0.76534647 2:-9.8072886 3:-0.1455686 4:2.6623409 5:3.6792798 6:5.0836693 
1 1:1.2259909 2:-9.6111236 3:0.088904784 4:1.8900522 5:1.1377033 6:1.4111484 
1 1:0.91490428 2:-9.611443 3:-1.0869672 4:1.4530844 5:1.5432821 6:1.7047072 
1 1:0.95209421 2:-9.8206962 3:-0.58801602 4:2.2524745 5:2.3723264 6:2.6230509 
0.9242699848306218 1:-0.15610195 2:-9.6393752 3:-2.3823876 4:1.7350241 5:3.4725968 6:2.8376482 
1 1:-0.14093867 2:-9.4336335 3:-2.7196494 4:1.7644298 5:3.4994283 6:3.2135877 
0.2165662339304952 1:-1.6971698 2:-9.2523126 3:-2.2583689 4:1.2259436 5:2.783113 6:1.8235298 
1 1:-1.6446569 2:-9.0847185 3:-2.1744128 4:1.3969646 5:3.1041064 6:1.5738832 
1 1:-2.6634696 2:-9.0227885 3:-0.34971202 4:1.5111381 5:1.1752916 6:1.9501451 
1 1:-3.1660923 2:-9.0810474 3:0.84930246 4:1.6478048 5:1.5530069 6:2.2213621 
1 1:-2.6910827 2:-9.2598144 3:-0.18307619 4:1.6449208 5:1.6209414 6:2.5619205 
0.6723785250385363 1:-2.7170997 2:-8.9666046 3:-1.9509543 4:1.5999078 5:3.5556533 6:2.7597007 
1 1:-2.3704193 2:-9.1977249 3:-2.3606802 4:1.9123994 5:4.1622215 6:4.6909779 
1 1:-3.2283416 2:-9.2275726 3:-2.1329112 4:1.7846731 5:4.1161161 6:3.1798857 
1 1:-3.1402349 2:-9.2577395 3:-2.3222136 4:1.7297082 5:3.8394964 6:2.8538837 
1 1:-1.8987616 2:-8.8867978 3:-1.7434575 4:2.1229046 5:4.2945934 6:2.1820384 
1 1:-0.057939689 2:-10.009519 3:-0.59136796 4:2.2869142 5:2.2691957 6:4.175984 
1 1:-2.2092097 2:-9.3469635 3:-0.70182001 4:2.2339856 5:1.6849112 6:1.236408 
1 1:-4.7643018 2:-8.2381287 3:0.42074018 4:1.3843666 5:2.7446222 6:1.3766472 
1 1:-4.4651861 2:-0.94443278 3:7.942028 4:3.4744956 5:2.5116163 6:2.4134141 
1 1:-6.5663376 2:-4.2125181 3:4.4308671 4:2.7291227 5:2.9431084 6:4.5528047 
1 1:-5.9507085 2:-7.2786924 3:3.0441447 4:2.952773 5:4.572933 6:3.1899375 
1 1:-5.7106499 2:-7.7439656 3:0.85009885 4:3.1166218 5:3.9266392 6:1.8499057 
1 1:-3.4261026 2:-9.2144843 3:0.31715213 4:1.853645 5:5.734191 6:2.8039356 
1 1:-0.89064303 2:-9.0318864 3:-2.1420106 4:1.2164467 5:2.3715853 6:1.3517507 
1 1:-1.3346877 2:-9.2539087 3:-2.1075331 4:1.3674236 5:4.3760595 6:2.6579008 
0.450034422652297 1:-1.1712435 2:-9.9115162 3:-2.1263362 4:1.2702583 5:3.648216 6:3.6513543 
0.2995786871775198 1:-0.35466109 2:-9.3956456 3:-1.2800977 4:1.0124138 5:0.90235899 6:1.5197089 
1 1:-1.0409989 2:-9.7137551 3:-2.0033063 4:1.2013344 5:2.5390108 6:4.0449885 
1 1:0.22042618 2:-9.6294792 3:-0.00686395 4:0.58363414 5:0.73283427 6:1.0422595 
1 1:0.0071826056 2:-9.6843864 3:-0.32417448 4:0.62855676 5:0.5346751 6:1.1697603 
1 1:-0.029368872 2:-9.7640334 3:-0.27070412 4:0.69063512 5:0.68976825 6:1.1968919 
1 1:0.360886 2:-9.4861464 3:-1.0588749 4:0.60181548 5:0.65498046 6:1.575697 
0.5728574037936223 1:-0.60557341 2:-9.75717 3:-0.94076119 4:1.9492793 5:4.1065697 6:2.0590158 
1 1:-0.35928988 2:-10.135454 3:-0.48914949 4:3.6931799 5:3.2543762 6:7.5441981 
1 1:-0.58817555 2:-9.3514325 3:-1.0060419 4:3.0593475 5:3.4858578 6:6.5427342 
1 1:-0.39280872 2:-9.7292376 3:-0.80971718 4:4.2282133 5:4.7487045 6:9.2312143 
0.4939293758396132 1:-0.085712431 2:-10.322042 3:-0.25362528 4:4.2336445 5:3.7035046 6:4.4950136 
1 1:-0.39041447 2:-10.147265 3:-0.95784015 4:4.5851862 5:4.3261325 6:8.7318138 
0.6262572212554263 1:0.25761606 2:-10.139444 3:-0.42122046 4:4.6000494 5:4.03603 6:5.2207166 
1 1:0.058578116 2:-10.206003 3:-0.49990873 4:4.7684414 5:5.307159 6:7.4885107 
1 1:-0.062089641 2:-9.272424 3:-0.4979942 4:3.9600467 5:4.2069806 6:7.968298 
0.4238659401893312 1:-0.035913034 2:-9.4837521 3:-0.63446224 4:4.2567843 5:4.1226553 6:7.7775365 
1 1:-0.49879202 2:-9.9115162 3:-1.4448192 4:5.057119 5:4.4496172 6:6.3128018 
1 1:-0.64164605 2:-9.9598791 3:-0.56742558 4:4.4797603 5:3.3541277 6:7.1975749 
1 1:-0.058258909 2:-9.1942134 3:-0.3010312 4:3.5180259 5:4.5176189 6:3.7239782 
0.09799727832604875 1:-0.23910094 2:-9.1100971 3:-0.42473142 4:3.4333972 5:4.5071655 6:3.6992738 
1 1:-0.50916688 2:-10.077833 3:-1.7134487 4:4.2376741 5:4.1938845 6:7.1920968 
1 1:-0.33311328 2:-10.415735 3:-0.30023174 4:4.0306522 5:4.3087171 6:3.9827323 
1 1:-0.69000892 2:-10.142317 3:-1.41609 4:4.7125053 5:4.8647484 6:11.081137 
0.3161753770294281 1:-0.80780366 2:-9.2456088 3:-1.08154 4:4.4940022 5:4.6172588 6:5.2353366 
1 1:-0.18004396 2:-10.381099 3:-0.46399685 4:3.8421901 5:5.9409247 6:6.6507584 
1 1:-0.92942912 2:-9.9678597 3:-0.55497552 4:5.0153926 5:5.1859188 6:7.1147579 
0.5728820303239207 1:-0.29959445 2:-10.370564 3:-0.63845362 4:4.2121896 5:5.0337137 6:7.7185523 
0.9132980498762744 1:-0.46064442 2:-9.9645078 3:-1.037646 4:3.7703443 5:5.2095187 6:4.901218 
0.09412731106272434 1:-0.51906291 2:-10.233616 3:-1.0192925 4:4.9916964 5:4.9774484 6:6.2863423 
1 1:-0.58929289 2:-9.2810431 3:-0.85377115 4:4.3894107 5:4.5558533 6:4.3181382 
1 1:-0.45170602 2:-10.280383 3:-0.59615796 4:4.8793749 5:5.6500042 6:7.2919583 
1 1:-1.5745866 2:-9.8222923 3:-0.098322038 4:3.8064248 5:3.8089302 6:4.1553659 
1 1:-3.9849093 2:-7.0914658 3:5.6517498 4:3.2738729 5:3.4269442 6:3.347876 
1 1:-2.9494969 2:1.5153701 3:8.513927 4:1.2948259 5:1.4929157 6:1.8230324 
1 1:-1.6164054 2:1.7247829 3:9.6128738 4:0.94256099 5:1.2790323 6:2.0398929 
1 1:-3.6047101 2:0.35258611 3:7.8379711 4:3.0978442 5:2.0705095 6:2.1137318 
1 1:-5.7376245 2:-6.0388151 3:5.5633206 4:3.6232492 5:3.0052433 6:3.0740554 
1 1:-5.3847193 2:-5.724217 3:4.8306974 4:2.9460816 5:2.6275258 6:3.4574144 
1 1:-3.9335138 2:-8.5961418 3:1.9769694 4:2.4835843 5:3.0770034 6:2.3476673 
1 1:-2.3444023 2:-10.231222 3:-0.02585678 4:2.6437184 5:3.7431096 6:3.6608941 
1 1:-2.7542897 2:-9.0719494 3:-0.9696507 4:2.5669602 5:2.6986982 6:1.8603485 
1 1:-2.3021048 2:-9.4013916 3:-0.51140209 4:2.9676051 5:2.6656742 6:3.8496294 
0.3811229478719225 1:-1.8451314 2:-9.6355445 3:-0.52433001 4:2.8717508 5:1.9560344 6:3.0666986 
