svm_type one_class
kernel_type rbf
gamma 0.166667
nr_class 2
total_sv 54
rho 22.0828
SV
1 1:-1.6208745 2:1.7290925 3:9.0877425 4:1.8252705 5:1.1506915 6:1.6245645 
1 1:6.0589264 2:0.70054342 3:6.4362498 4:3.6642915 5:1.5508256 6:3.0336608 
1 1:10.424993 2:-0.94858271 3:1.5190402 4:2.1016232 5:1.6935949 6:0.75415512 
1 1:10.570401 2:-2.2922087 3:1.4753058 4:2.5621724 5:2.0390862 6:0.90261483 
1 1:9.871134 2:-3.9798016 3:1.9432927 4:1.831243 5:1.6796932 6:0.72445475 
0.8075766136943426 1:10.835359 2:-3.1812556 3:1.6492845 4:2.1397119 5:2.195434 6:0.64213173 
1 1:10.556195 2:-3.3820493 3:2.0805599 4:2.2356931 5:2.1942454 6:0.84384325 
1 1:10.454362 2:-3.4966518 3:2.2554954 4:2.2581351 5:1.9610766 6:0.87871989 
0.7944107762346511 1:10.060276 2:-3.6197137 3:2.1681873 4:2.094635 5:1.7387553 6:0.7075091 
1 1:10.026917 2:-3.9852286 3:2.1739333 4:2.0220675 5:1.7494011 6:0.71665173 
1 1:10.454362 2:-3.8567397 3:2.2246907 4:2.2221611 5:1.7194339 6:0.8844661 
0.7545271614828774 1:9.6055371 2:-4.2174661 3:1.8060252 4:2.2807623 5:1.9016575 6:0.68714557 
1 1:9.7656294 2:-4.40166 3:1.7037123 4:2.11713 5:1.5752339 6:0.53208847 
1 1:10.186849 2:-4.5357353 3:1.7383489 4:2.023582 5:1.7891866 6:0.64974116 
1 1:10.766087 2:-3.9823555 3:1.6184773 4:2.1874347 5:2.2996166 6:0.7611572 
1 1:8.9348415 2:-2.296199 3:3.1561884 4:1.658957 5:1.988194 6:2.154224 
1 1:9.0810474 2:-3.6102965 3:2.3547748 4:2.2760212 5:1.5390353 6:1.4582915 
1 1:9.8273999 2:-3.1435868 3:1.8116088 4:2.173118 5:1.9485187 6:1.6621583 
1 1:9.7001881 2:-4.6546473 3:0.34891463 4:2.5979596 5:2.1022803 6:1.7637821 
1 1:9.3298847 2:-5.040433 3:-0.29065603 4:2.333348 5:1.5405116 6:1.0567672 
1 1:9.4871041 2:-5.19031 3:-0.21228559 4:2.35864 5:1.6298269 6:0.74025419 
1 1:9.7040187 2:-5.467399 3:-0.32162086 4:2.3640059 5:1.8555853 6:0.6863217 
0.1644948049640816 1:9.7752063 2:-5.0630981 3:-0.44069222 4:2.5420558 5:1.5996072 6:0.61700508 
1 1:9.5972373 2:-5.1575893 3:-0.18052321 4:2.7052954 5:1.8606378 6:0.74301253 
1 1:9.8452766 2:-5.3634907 3:-0.24213336 4:2.645133 5:1.8266919 6:0.64271708 
1 1:9.5068961 2:-5.2318095 3:-0.179565 4:2.5692887 5:1.8407745 6:0.63339672 
1 1:9.8966722 2:-5.3167239 3:-0.22122398 4:2.3085033 5:1.7522304 6:0.58170078 
0.301281606332318 1:9.668425 2:-4.3202572 3:-0.93421698 4:2.4525057 5:1.7345006 6:1.0034771 
1 1:9.7233319 2:-3.6690343 3:-0.64755088 4:2.6413222 5:1.9557105 6:1.6735934 
1 1:10.293152 2:-4.0139589 3:-0.99758332 4:2.7531966 5:1.5582159 6:0.9755235 
1 1:9.2847141 2:-4.7106716 3:-0.85808159 4:2.8351356 5:1.7568348 6:0.80156613 
1 1:9.7029014 2:-5.1997272 3:-0.5861002 4:2.5345251 5:1.8944039 6:0.84978833 
1 1:10.404881 2:-4.757598 3:-0.69575431 4:2.9438542 5:1.725969 6:0.74442759 
1 1:9.9089624 2:-5.0000508 3:-0.72815598 4:2.622679 5:1.74181 6:0.75971199 
1 1:9.5330727 2:-4.7998956 3:-0.65936246 4:2.3713396 5:1.5089189 6:0.78697129 
1 1:10.505917 2:-2.0135236 3:0.35210717 4:2.1600611 5:1.7969942 6:0.7007018 
1 1:10.321723 2:-1.7832014 3:-0.1937707 4:2.3069678 5:1.4335297 6:0.55352566 
1 1:10.821313 2:-1.6331648 3:0.060972349 4:2.4225141 5:1.6528881 6:0.6927058 
1 1:10.925221 2:-2.1501527 3:-0.083637239 4:2.4170058 5:1.611192 6:0.66760187 
1 1:9.9831827 2:-2.8398425 3:-0.60908446 4:2.1991939 5:1.3644429 6:0.58519191 
1 1:10.50863 2:-2.8636248 3:-0.75193857 4:2.6340666 5:1.5266759 6:0.69838586 
1 1:10.620679 2:-2.9842926 3:-0.73501791 4:2.5280152 5:1.4313542 6:0.82699636 
1 1:9.8377748 2:-3.0211633 3:-0.72368693 4:2.1928906 5:1.1808342 6:0.54047256 
0.3729278411862434 1:9.769141 2:-3.3402306 3:-0.70804328 4:2.3417968 5:1.3728546 6:0.54258445 
1 1:10.353486 2:-2.0069795 3:0.057620328 4:2.4098506 5:1.662662 6:0.63378216 
1 1:10.578541 2:-2.4633143 3:-0.097524014 4:2.3670896 5:1.613034 6:0.76317036 
1 1:9.6527829 2:-4.224968 3:-1.0467441 4:2.4979933 5:1.560049 6:0.70078436 
1 1:10.216378 2:-1.4210385 3:2.0373047 4:2.298306 5:1.6134092 6:0.94262355 
1 1:10.159715 2:-1.4553554 3:3.4530738 4:2.3521884 5:2.2046605 6:1.2066707 
1 1:10.6368 2:-2.1713813 3:2.437296 4:2.0780615 5:1.9756954 6:1.2584159 
1 1:9.688217 2:-2.5266809 3:2.8120673 4:2.0304027 5:1.1861436 6:1.6971658 
0.6047811961054903 1:10.144073 2:-3.2502086 3:2.0454449 4:2.7225799 5:1.8276135 6:1.1361069 
1 1:10.342632 2:-3.4602599 3:2.2882148 4:2.3388555 5:1.6566302 6:0.77849476 
1 1:11.054987 2:-4.1842665 3:0.032401548 4:2.7738775 5:1.9774195 6:0.77192238 
