svm_type one_class
kernel_type rbf
gamma 0.166667
nr_class 2
total_sv 52
rho 22.6548
SV
1 1:4.7837746 2:1.4941415 3:5.4978797 4:6.4163954 5:2.2778937 6:3.8903812 
1 1:7.2558676 2:-3.6885071 3:5.4405535 4:2.9034175 5:2.4654904 6:2.7882798 
1 1:7.82473 2:-4.6142651 3:4.0206591 4:3.1872943 5:1.9731023 6:2.6490432 
1 1:6.8169307 2:-3.3777397 3:5.065009 4:2.4684329 5:1.6600507 6:3.1074556 
1 1:7.8180262 2:-4.6212881 3:3.2945787 4:3.2831536 5:2.3556702 6:2.3416081 
1 1:6.9731923 2:-6.218061 3:1.8725839 4:2.006808 5:1.5762641 6:3.5420148 
1 1:5.8239754 2:-7.3479647 3:1.0191311 4:1.6329148 5:2.2712388 6:1.4718083 
1 1:0.6076484 2:-9.8875742 3:-0.46415653 4:2.5162626 5:5.810268 6:3.6065894 
1 1:-2.2590091 2:-9.3104119 3:-1.1029284 4:1.6977071 5:3.1684406 6:3.4175726 
1 1:-2.2112847 2:-9.2192727 3:-1.1109041 4:1.9144447 5:3.3962984 6:3.2917109 
1 1:-2.1327549 2:-9.4192683 3:-1.1011722 4:1.7656831 5:3.0632847 6:3.3069044 
1 1:-2.2711397 2:-9.5667511 3:-1.3864001 4:1.6224496 5:2.9413721 6:4.0366243 
1 1:-2.0371464 2:-9.6894939 3:-1.0173753 4:2.0191323 5:3.0581866 6:3.512082 
1 1:-2.0922131 2:-9.4823155 3:-1.0159386 4:1.5177073 5:3.3056224 6:3.4867664 
1 1:-2.2160731 2:-9.401232 3:-1.2314091 4:1.8314043 5:2.9311823 6:3.4901554 
1 1:-2.1565373 2:-9.5543013 3:-0.88234358 4:1.8893744 5:3.2105378 6:3.3815852 
1 1:-2.2452824 2:-9.3656382 3:-1.0813792 4:1.5321399 5:3.2451037 6:3.345282 
1 1:-2.2092097 2:-9.7276416 3:-1.2122627 4:1.87977 5:3.0006173 6:3.6794181 
1 1:-2.1844696 2:-9.8320287 3:-0.91107351 4:1.8933977 5:3.3700487 6:3.4121084 
1 1:-2.1641987 2:-9.4930098 3:-0.84451447 4:2.3039288 5:3.2478634 6:3.518216 
0.8323364132644815 1:-2.2893357 2:-9.1268565 3:-0.88776993 4:1.9049169 5:3.2995402 6:3.6151236 
1 1:-2.6698541 2:-9.3798438 3:-1.089202 4:2.3236473 5:4.6145876 6:3.7168895 
1 1:-2.2013887 2:-9.0197558 3:-1.3056354 4:1.5144224 5:4.178125 6:3.8008607 
1 1:-2.3163103 2:-9.8658667 3:-2.1777638 4:2.6344503 5:3.7339332 6:5.3284119 
1 1:-2.4644316 2:-9.403307 3:-0.5801947 4:2.9565448 5:5.1713116 6:4.6714609 
1 1:-2.3191834 2:-9.6891746 3:-2.3242886 4:2.6236199 5:4.0621547 6:5.4091943 
1 1:-2.2347479 2:-9.8446381 3:-2.1467982 4:2.0145429 5:4.2971019 6:5.7757158 
1 1:-2.1914926 2:-9.6768845 3:-1.2245437 4:2.4710897 5:4.2543767 6:6.1201582 
1 1:-2.2088905 2:-9.7849427 3:-2.4786336 4:2.3050586 5:3.8276341 6:4.9558741 
1 1:-2.0432117 2:-9.4938079 3:-2.3247645 4:2.2821612 5:4.2455371 6:5.6067911 
1 1:-2.1611661 2:-9.8224519 3:-0.88983715 4:2.542376 5:4.8017702 6:5.7321393 
1 1:-2.1555796 2:-9.7898908 3:-1.9804795 4:2.4439411 5:5.0228149 6:5.6549212 
1 1:-2.284228 2:-9.6585289 3:-2.0989053 4:2.2897639 5:4.8470138 6:6.9888348 
1 1:-2.1351491 2:-9.7977117 3:-2.4213393 4:2.1701929 5:4.3425219 6:5.4907029 
1 1:-2.3595656 2:-9.6890151 3:-2.086786 4:2.4948351 5:4.700952 6:6.2941648 
1 1:-2.1914927 2:-9.71998 3:-0.85488985 4:3.2124824 5:4.1890557 6:4.2060436 
1 1:-2.2191057 2:-9.9123143 3:-0.78546626 4:2.7865809 5:5.1499281 6:5.156227 
0.1444071246474544 1:-1.6481684 2:-10.27751 3:-1.2611072 4:2.5572709 5:4.8548101 6:4.8506531 
1 1:-1.7351578 2:-8.9303724 3:-1.2098696 4:2.6987563 5:4.7160261 6:5.0160478 
1 1:-2.3231737 2:-9.729876 3:-1.9249262 4:3.158233 5:4.2122564 6:5.4737376 
1 1:-2.0874246 2:-9.5522263 3:-2.452141 4:2.4945721 5:4.7294209 6:5.6221761 
1 1:-2.0436906 2:-9.7956368 3:-0.4796406 4:3.0076634 5:5.1826856 6:5.0779803 
1 1:-2.1857465 2:-10.20297 3:-0.64180555 4:2.4243401 5:4.7308492 6:4.9237178 
1 1:-1.9918162 2:-9.5598878 3:-1.3878367 4:1.3335688 5:2.7785151 6:3.3176363 
1 1:-2.3740904 2:-9.2997179 3:-1.5875146 4:1.4431422 5:1.7886447 6:2.5892043 
1 1:-3.7164395 2:-7.529924 3:-2.8893212 4:2.1289982 5:3.6691837 6:2.8674341 
1 1:-4.0840292 2:-6.8036828 3:-2.5713684 4:3.6876395 5:4.3683795 6:3.0943908 
1 1:-1.8237432 2:-9.6775229 3:-1.3284597 4:2.4339616 5:5.0911691 6:5.5217947 
0.8232564620880685 1:-2.304499 2:-9.5337112 3:-1.5599018 4:3.3593081 5:4.633444 6:4.7602929 
1 1:-1.9164786 2:-10.303527 3:-1.2058684 4:2.3442053 5:4.9758284 6:5.0045687 
1 1:-1.9038692 2:-9.7887735 3:-1.3101013 4:2.9362146 5:5.7796572 6:4.6078558 
1 1:-2.3249295 2:-9.0428998 3:-2.9980154 4:2.8011308 5:4.6348572 6:3.7798301 
