svm_type one_class
kernel_type rbf
gamma 0.166667
nr_class 2
total_sv 55
rho 8.44696
SV
1 1:0.082839369 2:1.6821661 3:9.001544 4:2.261882 5:1.3222317 6:1.047208 
1 1:10.042399 2:-2.5177425 3:2.2650721 4:3.2507633 5:1.8639188 6:2.5654647 
1 1:8.9351608 2:-1.0093954 3:-0.16184556 4:3.4635185 5:2.8748718 6:3.2193142 
1 1:9.0792916 2:-2.7948314 3:-1.1745941 4:2.5582138 5:1.6354073 6:2.2957879 
1 1:8.9745853 2:-3.4782962 3:-1.9357909 4:2.3254287 5:1.4233541 6:2.3843483 
1 1:8.9855986 2:-3.9616057 3:-2.6299503 4:2.6503317 5:1.8113762 6:2.7845481 
1 1:8.8923844 2:-4.3343031 3:-0.92416166 4:2.757053 5:1.9320665 6:3.3354184 
1 1:9.0061887 2:-4.2615194 3:-2.1784034 4:2.4036082 5:1.5012496 6:2.7441047 
0.912707352538631 1:9.0226289 2:-4.379793 3:-1.2887174 4:2.9771516 5:1.756442 6:3.1627131 
0.6093319003328769 1:8.6812158 2:-4.381868 3:-0.73581727 4:1.3946765 5:0.59689559 6:1.7021868 
1 1:8.8242294 2:-4.3213744 3:-0.76263212 4:1.2109005 5:0.70648746 6:1.4943097 
1 1:8.6030051 2:-4.4980665 3:-0.93405745 4:0.97037911 5:0.75239718 6:0.83034331 
1 1:8.4419551 2:-4.7253561 3:-1.5346825 4:1.1401596 5:0.82048759 6:1.5496535 
1 1:9.4382624 2:-1.9509552 3:-1.2136999 4:1.5958808 5:1.5144251 6:2.0524203 
1 1:8.6882387 2:-4.4256021 3:0.27006595 4:1.125808 5:1.3801417 6:2.1122871 
0.8464371852075732 1:7.9204981 2:-5.3219911 3:-0.66287441 4:1.1481781 5:1.0595041 6:1.5978667 
1 1:7.437029 2:-5.0632577 3:-1.5061118 4:3.2347171 5:3.4625533 6:3.1534484 
1 1:8.5037257 2:-5.936503 3:-0.95528607 4:3.5002434 5:2.562514 6:2.3779551 
1 1:7.7805171 2:-5.8447252 3:-0.036870285 4:1.1619359 5:1.071592 6:1.8566159 
1 1:7.5174741 2:-5.6664369 3:-1.8709834 4:4.5489062 5:3.7796371 6:3.0087942 
1 1:7.5208259 2:-5.4654836 3:-2.7448713 4:6.8155558 5:4.4320075 6:3.7714766 
1 1:7.0555528 2:-6.9864402 3:-2.7964262 4:4.9229059 5:3.7157831 6:2.754654 
1 1:6.4635465 2:-5.4476069 3:1.5670841 4:2.0518722 5:2.6189576 6:4.0856118 
0.7150109181111887 1:8.0944767 2:-5.9408125 3:-1.7270146 4:3.2372054 5:3.1430873 6:2.9207068 
1 1:7.0300146 2:-6.6333752 3:-1.565807 4:4.5488373 5:4.6786544 6:2.3561086 
1 1:7.0908273 2:-7.0526797 3:-0.6132349 4:3.4703292 5:3.8793702 6:4.187994 
1 1:6.8127807 2:-7.2233065 3:-1.2543997 4:5.0795965 5:4.5558238 6:3.0690279 
1 1:6.334898 2:-6.8057577 3:-2.0998733 4:3.779534 5:5.135066 6:2.4802914 
1 1:5.7518302 2:-8.4363687 3:-0.93820362 4:2.066072 5:4.0769642 6:2.6180471 
1 1:5.1033207 2:-8.1299109 3:-1.2194449 4:0.61334467 5:0.9273071 6:1.3497502 
0.003213661482797043 1:5.2498459 2:-7.8263262 3:0.090021757 4:2.1413032 5:2.2188982 6:2.4501828 
1 1:5.129657 2:-8.4896796 3:-0.6346242 4:2.0211192 5:2.0069999 6:1.6035089 
1 1:4.7015737 2:-7.2011203 3:-3.8085332 4:1.7020476 5:2.5204698 6:2.2437325 
1 1:5.0833691 2:-7.9350229 3:-3.8439677 4:1.438285 5:2.364619 6:2.4692752 
0.4544607538168403 1:4.2334274 2:-8.7578302 3:-2.4342597 4:1.7651317 5:2.7703797 6:2.7144948 
1 1:4.8137819 2:-8.2687746 3:-2.3011445 4:1.2915592 5:1.7148273 6:1.8083315 
1 1:4.315788 2:-8.8069911 3:-1.7463298 4:1.5162577 5:1.7726167 6:3.008817 
0.09974086925573157 1:4.4600785 2:-8.5867246 3:-1.8001193 4:1.4575993 5:1.8369763 6:2.4196693 
1 1:5.0865613 2:-8.3769926 3:-1.9096121 4:2.3927683 5:4.2208467 6:2.4228171 
1 1:4.9435476 2:-8.8326889 3:-1.9450475 4:1.9294297 5:3.9385749 6:2.8959373 
1 1:5.0294197 2:-7.3854738 3:-2.6577211 4:2.1615584 5:4.1803691 6:2.2414259 
0.5358058068058286 1:5.3033163 2:-8.5934283 3:-2.0023489 4:2.0426406 5:2.7863415 6:4.0024357 
1 1:4.6180959 2:-8.65057 3:-1.6834404 4:2.5490311 5:2.9487531 6:4.0622624 
1 1:4.6982218 2:-8.4500954 3:-1.5776186 4:1.86984 5:2.9664287 6:4.0240514 
1 1:4.6789086 2:-7.6221804 3:-3.2300937 4:1.900096 5:2.5074362 6:2.6308919 
1 1:7.1968107 2:-5.0808152 3:2.545193 4:2.0527802 5:3.0183159 6:3.0495415 
0.9748426297027049 1:6.3104772 2:-7.1115771 3:0.31332282 4:3.5472691 5:2.4321169 6:2.9360684 
1 1:6.1926825 2:-7.8424471 3:0.25937205 4:3.4701556 5:2.4639158 6:3.7337391 
1 1:5.9535815 2:-7.6328747 3:-0.38706233 4:1.3262876 5:1.4136456 6:1.8928851 
1 1:6.4601947 2:-7.2427793 3:-0.44420404 4:0.91910804 5:0.870152 6:1.3694524 
0.6484489227458321 1:6.8633782 2:-7.4162792 3:-0.59056978 4:1.4548634 5:1.4229689 6:2.8001404 
1 1:6.7277068 2:-7.1176424 3:-0.05666328 4:3.5140663 5:1.8010561 6:3.3007457 
1 1:6.2408858 2:-6.874232 3:0.85169829 4:1.4428794 5:1.9119744 6:3.5446169 
1 1:7.3888257 2:-4.5422795 3:4.5907994 4:1.6480044 5:1.0101546 6:1.4097653 
1 1:6.7305798 2:-7.5599312 3:0.15642014 4:3.2248219 5:2.2105261 6:3.7946169 
